digraph Tree {
node [shape=box, style="filled, rounded", color="black", fontname="helvetica"] ;
edge [fontname="helvetica"] ;
0 [label="x <= 1.086\ngini = 0.5\nsamples = 375\nvalue = [186, 189]\nclass = no", fillcolor="#fcfdff"] ;
1 [label="y <= -2.356\ngini = 0.107\nsamples = 176\nvalue = [10, 166]\nclass = no", fillcolor="#45a3e7"] ;
0 -> 1 [labeldistance=2.5, labelangle=45, headlabel="True"] ;
2 [label="gini = 0.278\nsamples = 6\nvalue = [5, 1]\nclass = yes", fillcolor="#ea9a61"] ;
1 -> 2 ;
3 [label="gini = 0.057\nsamples = 170\nvalue = [5, 165]\nclass = no", fillcolor="#3fa0e6"] ;
1 -> 3 ;
4 [label="y <= 0.236\ngini = 0.204\nsamples = 199\nvalue = [176, 23]\nclass = yes", fillcolor="#e89153"] ;
0 -> 4 [labeldistance=2.5, labelangle=-45, headlabel="False"] ;
5 [label="gini = 0.102\nsamples = 185\nvalue = [175, 10]\nclass = yes", fillcolor="#e68844"] ;
4 -> 5 ;
6 [label="gini = 0.133\nsamples = 14\nvalue = [1, 13]\nclass = no", fillcolor="#48a5e7"] ;
4 -> 6 ;
}
